digraph Tree {
node [shape=box, fontname="helvetica"] ;
edge [fontname="helvetica"] ;
0 [label="x[1] <= 0.5\ngini = 0.473\nsamples = 891\nvalue = [549, 342]"] ;
1 [label="x[5] <= 1.0\ngini = 0.306\nsamples = 577\nvalue = [468, 109]"] ;
0 -> 1 [labeldistance=2.5, labelangle=45, headlabel="True"] ;
2 [label="x[0] <= 2.5\ngini = 0.489\nsamples = 40\nvalue = [17, 23]"] ;
1 -> 2 ;
3 [label="gini = 0.0\nsamples = 12\nvalue = [0, 12]"] ;
2 -> 3 ;
4 [label="x[3] <= 1.5\ngini = 0.477\nsamples = 28\nvalue = [17, 11]"] ;
2 -> 4 ;
5 [label="gini = 0.0\nsamples = 4\nvalue = [0, 4]"] ;
4 -> 5 ;
6 [label="x[3] <= 2.5\ngini = 0.413\nsamples = 24\nvalue = [17, 7]"] ;
4 -> 6 ;
7 [label="x[4] <= 1.5\ngini = 0.49\nsamples = 14\nvalue = [8, 6]"] ;
6 -> 7 ;
8 [label="x[4] <= 0.5\ngini = 0.48\nsamples = 10\nvalue = [4, 6]"] ;
7 -> 8 ;
9 [label="x[2] <= 0.5\ngini = 0.5\nsamples = 8\nvalue = [4, 4]"] ;
8 -> 9 ;
10 [label="gini = 0.49\nsamples = 7\nvalue = [3, 4]"] ;
9 -> 10 ;
11 [label="gini = 0.0\nsamples = 1\nvalue = [1, 0]"] ;
9 -> 11 ;
12 [label="gini = 0.0\nsamples = 2\nvalue = [0, 2]"] ;
8 -> 12 ;
13 [label="gini = 0.0\nsamples = 4\nvalue = [4, 0]"] ;
7 -> 13 ;
14 [label="x[2] <= 0.5\ngini = 0.18\nsamples = 10\nvalue = [9, 1]"] ;
6 -> 14 ;
15 [label="gini = 0.198\nsamples = 9\nvalue = [8, 1]"] ;
14 -> 15 ;
16 [label="gini = 0.0\nsamples = 1\nvalue = [1, 0]"] ;
14 -> 16 ;
17 [label="x[0] <= 1.5\ngini = 0.269\nsamples = 537\nvalue = [451, 86]"] ;
1 -> 17 ;
18 [label="x[2] <= 3.5\ngini = 0.457\nsamples = 119\nvalue = [77, 42]"] ;
17 -> 18 ;
19 [label="x[3] <= 1.0\ngini = 0.473\nsamples = 107\nvalue = [66, 41]"] ;
18 -> 19 ;
20 [label="gini = 0.0\nsamples = 6\nvalue = [6, 0]"] ;
19 -> 20 ;
21 [label="x[3] <= 2.5\ngini = 0.482\nsamples = 101\nvalue = [60, 41]"] ;
19 -> 21 ;
22 [label="x[2] <= 2.5\ngini = 0.5\nsamples = 38\nvalue = [19, 19]"] ;
21 -> 22 ;
23 [label="x[6] <= 0.5\ngini = 0.495\nsamples = 29\nvalue = [13, 16]"] ;
22 -> 23 ;
24 [label="gini = 0.0\nsamples = 1\nvalue = [1, 0]"] ;
23 -> 24 ;
25 [label="x[5] <= 3.0\ngini = 0.49\nsamples = 28\nvalue = [12, 16]"] ;
23 -> 25 ;
26 [label="x[4] <= 0.5\ngini = 0.48\nsamples = 25\nvalue = [10, 15]"] ;
25 -> 26 ;
27 [label="x[2] <= 1.5\ngini = 0.457\nsamples = 17\nvalue = [6, 11]"] ;
26 -> 27 ;
28 [label="gini = 0.444\nsamples = 3\nvalue = [1, 2]"] ;
27 -> 28 ;
29 [label="gini = 0.459\nsamples = 14\nvalue = [5, 9]"] ;
27 -> 29 ;
30 [label="x[2] <= 1.5\ngini = 0.5\nsamples = 8\nvalue = [4, 4]"] ;
26 -> 30 ;
31 [label="gini = 0.5\nsamples = 2\nvalue = [1, 1]"] ;
30 -> 31 ;
32 [label="gini = 0.5\nsamples = 6\nvalue = [3, 3]"] ;
30 -> 32 ;
33 [label="x[4] <= 0.5\ngini = 0.444\nsamples = 3\nvalue = [2, 1]"] ;
25 -> 33 ;
34 [label="gini = 0.0\nsamples = 1\nvalue = [1, 0]"] ;
33 -> 34 ;
35 [label="gini = 0.5\nsamples = 2\nvalue = [1, 1]"] ;
33 -> 35 ;
36 [label="x[4] <= 0.5\ngini = 0.444\nsamples = 9\nvalue = [6, 3]"] ;
22 -> 36 ;
37 [label="x[5] <= 3.0\ngini = 0.49\nsamples = 7\nvalue = [4, 3]"] ;
36 -> 37 ;
38 [label="gini = 0.48\nsamples = 5\nvalue = [3, 2]"] ;
37 -> 38 ;
39 [label="gini = 0.5\nsamples = 2\nvalue = [1, 1]"] ;
37 -> 39 ;
40 [label="gini = 0.0\nsamples = 2\nvalue = [2, 0]"] ;
36 -> 40 ;
41 [label="x[6] <= 0.5\ngini = 0.455\nsamples = 63\nvalue = [41, 22]"] ;
21 -> 41 ;
42 [label="x[5] <= 3.0\ngini = 0.489\nsamples = 40\nvalue = [23, 17]"] ;
41 -> 42 ;
43 [label="x[4] <= 0.5\ngini = 0.482\nsamples = 37\nvalue = [22, 15]"] ;
42 -> 43 ;
44 [label="x[2] <= 1.5\ngini = 0.444\nsamples = 21\nvalue = [14, 7]"] ;
43 -> 44 ;
45 [label="gini = 0.32\nsamples = 5\nvalue = [4, 1]"] ;
44 -> 45 ;
46 [label="x[2] <= 2.5\ngini = 0.469\nsamples = 16\nvalue = [10, 6]"] ;
44 -> 46 ;
47 [label="gini = 0.496\nsamples = 11\nvalue = [6, 5]"] ;
46 -> 47 ;
48 [label="gini = 0.32\nsamples = 5\nvalue = [4, 1]"] ;
46 -> 48 ;
49 [label="x[2] <= 2.5\ngini = 0.5\nsamples = 16\nvalue = [8, 8]"] ;
43 -> 49 ;
50 [label="x[2] <= 1.5\ngini = 0.494\nsamples = 9\nvalue = [4, 5]"] ;
49 -> 50 ;
51 [label="gini = 0.5\nsamples = 8\nvalue = [4, 4]"] ;
50 -> 51 ;
52 [label="gini = 0.0\nsamples = 1\nvalue = [0, 1]"] ;
50 -> 52 ;
53 [label="gini = 0.49\nsamples = 7\nvalue = [4, 3]"] ;
49 -> 53 ;
54 [label="x[4] <= 1.5\ngini = 0.444\nsamples = 3\nvalue = [1, 2]"] ;
42 -> 54 ;
55 [label="gini = 0.0\nsamples = 2\nvalue = [0, 2]"] ;
54 -> 55 ;
56 [label="gini = 0.0\nsamples = 1\nvalue = [1, 0]"] ;
54 -> 56 ;
57 [label="x[2] <= 1.5\ngini = 0.34\nsamples = 23\nvalue = [18, 5]"] ;
41 -> 57 ;
58 [label="x[4] <= 0.5\ngini = 0.48\nsamples = 5\nvalue = [3, 2]"] ;
57 -> 58 ;
59 [label="gini = 0.5\nsamples = 2\nvalue = [1, 1]"] ;
58 -> 59 ;
60 [label="gini = 0.444\nsamples = 3\nvalue = [2, 1]"] ;
58 -> 60 ;
61 [label="x[4] <= 0.5\ngini = 0.278\nsamples = 18\nvalue = [15, 3]"] ;
57 -> 61 ;
62 [label="x[2] <= 2.5\ngini = 0.153\nsamples = 12\nvalue = [11, 1]"] ;
61 -> 62 ;
63 [label="gini = 0.219\nsamples = 8\nvalue = [7, 1]"] ;
62 -> 63 ;
64 [label="gini = 0.0\nsamples = 4\nvalue = [4, 0]"] ;
62 -> 64 ;
65 [label="x[2] <= 2.5\ngini = 0.444\nsamples = 6\nvalue = [4, 2]"] ;
61 -> 65 ;
66 [label="x[5] <= 3.0\ngini = 0.375\nsamples = 4\nvalue = [3, 1]"] ;
65 -> 66 ;
67 [label="gini = 0.444\nsamples = 3\nvalue = [2, 1]"] ;
66 -> 67 ;
68 [label="gini = 0.0\nsamples = 1\nvalue = [1, 0]"] ;
66 -> 68 ;
69 [label="x[5] <= 3.0\ngini = 0.5\nsamples = 2\nvalue = [1, 1]"] ;
65 -> 69 ;
70 [label="gini = 0.0\nsamples = 1\nvalue = [1, 0]"] ;
69 -> 70 ;
71 [label="gini = 0.0\nsamples = 1\nvalue = [0, 1]"] ;
69 -> 71 ;
72 [label="x[3] <= 2.5\ngini = 0.153\nsamples = 12\nvalue = [11, 1]"] ;
18 -> 72 ;
73 [label="gini = 0.32\nsamples = 5\nvalue = [4, 1]"] ;
72 -> 73 ;
74 [label="gini = 0.0\nsamples = 7\nvalue = [7, 0]"] ;
72 -> 74 ;
75 [label="x[3] <= 2.5\ngini = 0.188\nsamples = 418\nvalue = [374, 44]"] ;
17 -> 75 ;
76 [label="x[3] <= 1.5\ngini = 0.179\nsamples = 393\nvalue = [354, 39]"] ;
75 -> 76 ;
77 [label="x[3] <= 0.5\ngini = 0.192\nsamples = 325\nvalue = [290, 35]"] ;
76 -> 77 ;
78 [label="x[2] <= 1.5\ngini = 0.148\nsamples = 174\nvalue = [160, 14]"] ;
77 -> 78 ;
79 [label="x[4] <= 0.5\ngini = 0.172\nsamples = 137\nvalue = [124, 13]"] ;
78 -> 79 ;
80 [label="x[0] <= 2.5\ngini = 0.143\nsamples = 90\nvalue = [83, 7]"] ;
79 -> 80 ;
81 [label="gini = 0.0\nsamples = 6\nvalue = [6, 0]"] ;
80 -> 81 ;
82 [label="x[6] <= 0.5\ngini = 0.153\nsamples = 84\nvalue = [77, 7]"] ;
80 -> 82 ;
83 [label="gini = 0.219\nsamples = 8\nvalue = [7, 1]"] ;
82 -> 83 ;
84 [label="gini = 0.145\nsamples = 76\nvalue = [70, 6]"] ;
82 -> 84 ;
85 [label="x[4] <= 1.5\ngini = 0.223\nsamples = 47\nvalue = [41, 6]"] ;
79 -> 85 ;
86 [label="x[6] <= 0.5\ngini = 0.269\nsamples = 25\nvalue = [21, 4]"] ;
85 -> 86 ;
87 [label="gini = 0.0\nsamples = 2\nvalue = [2, 0]"] ;
86 -> 87 ;
88 [label="gini = 0.287\nsamples = 23\nvalue = [19, 4]"] ;
86 -> 88 ;
89 [label="x[6] <= 0.5\ngini = 0.165\nsamples = 22\nvalue = [20, 2]"] ;
85 -> 89 ;
90 [label="gini = 0.0\nsamples = 1\nvalue = [1, 0]"] ;
89 -> 90 ;
91 [label="gini = 0.172\nsamples = 21\nvalue = [19, 2]"] ;
89 -> 91 ;
92 [label="x[2] <= 2.5\ngini = 0.053\nsamples = 37\nvalue = [36, 1]"] ;
78 -> 92 ;
93 [label="x[4] <= 0.5\ngini = 0.071\nsamples = 27\nvalue = [26, 1]"] ;
92 -> 93 ;
94 [label="gini = 0.1\nsamples = 19\nvalue = [18, 1]"] ;
93 -> 94 ;
95 [label="gini = 0.0\nsamples = 8\nvalue = [8, 0]"] ;
93 -> 95 ;
96 [label="gini = 0.0\nsamples = 10\nvalue = [10, 0]"] ;
92 -> 96 ;
97 [label="x[2] <= 1.5\ngini = 0.239\nsamples = 151\nvalue = [130, 21]"] ;
77 -> 97 ;
98 [label="x[4] <= 0.5\ngini = 0.205\nsamples = 95\nvalue = [84, 11]"] ;
97 -> 98 ;
99 [label="x[0] <= 2.5\ngini = 0.194\nsamples = 92\nvalue = [82, 10]"] ;
98 -> 99 ;
100 [label="x[5] <= 3.0\ngini = 0.124\nsamples = 30\nvalue = [28, 2]"] ;
99 -> 100 ;
101 [label="x[6] <= 0.5\ngini = 0.133\nsamples = 28\nvalue = [26, 2]"] ;
100 -> 101 ;
102 [label="gini = 0.0\nsamples = 2\nvalue = [2, 0]"] ;
101 -> 102 ;
103 [label="gini = 0.142\nsamples = 26\nvalue = [24, 2]"] ;
101 -> 103 ;
104 [label="gini = 0.0\nsamples = 2\nvalue = [2, 0]"] ;
100 -> 104 ;
105 [label="x[6] <= 0.5\ngini = 0.225\nsamples = 62\nvalue = [54, 8]"] ;
99 -> 105 ;
106 [label="gini = 0.444\nsamples = 3\nvalue = [2, 1]"] ;
105 -> 106 ;
107 [label="gini = 0.209\nsamples = 59\nvalue = [52, 7]"] ;
105 -> 107 ;
108 [label="x[0] <= 2.5\ngini = 0.444\nsamples = 3\nvalue = [2, 1]"] ;
98 -> 108 ;
109 [label="gini = 0.0\nsamples = 1\nvalue = [0, 1]"] ;
108 -> 109 ;
110 [label="gini = 0.0\nsamples = 2\nvalue = [2, 0]"] ;
108 -> 110 ;
111 [label="x[2] <= 2.5\ngini = 0.293\nsamples = 56\nvalue = [46, 10]"] ;
97 -> 111 ;
112 [label="x[6] <= 0.5\ngini = 0.343\nsamples = 41\nvalue = [32, 9]"] ;
111 -> 112 ;
113 [label="gini = 0.0\nsamples = 4\nvalue = [4, 0]"] ;
112 -> 113 ;
114 [label="x[4] <= 0.5\ngini = 0.368\nsamples = 37\nvalue = [28, 9]"] ;
112 -> 114 ;
115 [label="x[5] <= 3.0\ngini = 0.382\nsamples = 35\nvalue = [26, 9]"] ;
114 -> 115 ;
116 [label="x[0] <= 2.5\ngini = 0.389\nsamples = 34\nvalue = [25, 9]"] ;
115 -> 116 ;
117 [label="gini = 0.355\nsamples = 13\nvalue = [10, 3]"] ;
116 -> 117 ;
118 [label="gini = 0.408\nsamples = 21\nvalue = [15, 6]"] ;
116 -> 118 ;
119 [label="gini = 0.0\nsamples = 1\nvalue = [1, 0]"] ;
115 -> 119 ;
120 [label="gini = 0.0\nsamples = 2\nvalue = [2, 0]"] ;
114 -> 120 ;
121 [label="x[2] <= 3.5\ngini = 0.124\nsamples = 15\nvalue = [14, 1]"] ;
111 -> 121 ;
122 [label="gini = 0.0\nsamples = 12\nvalue = [12, 0]"] ;
121 -> 122 ;
123 [label="gini = 0.444\nsamples = 3\nvalue = [2, 1]"] ;
121 -> 123 ;
124 [label="x[4] <= 0.5\ngini = 0.111\nsamples = 68\nvalue = [64, 4]"] ;
76 -> 124 ;
125 [label="x[0] <= 2.5\ngini = 0.04\nsamples = 49\nvalue = [48, 1]"] ;
124 -> 125 ;
126 [label="x[6] <= 0.5\ngini = 0.091\nsamples = 21\nvalue = [20, 1]"] ;
125 -> 126 ;
127 [label="x[2] <= 1.5\ngini = 0.133\nsamples = 14\nvalue = [13, 1]"] ;
126 -> 127 ;
128 [label="gini = 0.0\nsamples = 2\nvalue = [2, 0]"] ;
127 -> 128 ;
129 [label="x[5] <= 3.0\ngini = 0.153\nsamples = 12\nvalue = [11, 1]"] ;
127 -> 129 ;
130 [label="gini = 0.165\nsamples = 11\nvalue = [10, 1]"] ;
129 -> 130 ;
131 [label="gini = 0.0\nsamples = 1\nvalue = [1, 0]"] ;
129 -> 131 ;
132 [label="gini = 0.0\nsamples = 7\nvalue = [7, 0]"] ;
126 -> 132 ;
133 [label="gini = 0.0\nsamples = 28\nvalue = [28, 0]"] ;
125 -> 133 ;
134 [label="x[0] <= 2.5\ngini = 0.266\nsamples = 19\nvalue = [16, 3]"] ;
124 -> 134 ;
135 [label="gini = 0.0\nsamples = 5\nvalue = [5, 0]"] ;
134 -> 135 ;
136 [label="x[4] <= 1.5\ngini = 0.337\nsamples = 14\nvalue = [11, 3]"] ;
134 -> 136 ;
137 [label="x[2] <= 0.5\ngini = 0.408\nsamples = 7\nvalue = [5, 2]"] ;
136 -> 137 ;
138 [label="gini = 0.0\nsamples = 1\nvalue = [1, 0]"] ;
137 -> 138 ;
139 [label="x[6] <= 0.5\ngini = 0.444\nsamples = 6\nvalue = [4, 2]"] ;
137 -> 139 ;
140 [label="gini = 0.375\nsamples = 4\nvalue = [3, 1]"] ;
139 -> 140 ;
141 [label="gini = 0.5\nsamples = 2\nvalue = [1, 1]"] ;
139 -> 141 ;
142 [label="x[6] <= 0.5\ngini = 0.245\nsamples = 7\nvalue = [6, 1]"] ;
136 -> 142 ;
143 [label="x[2] <= 1.5\ngini = 0.32\nsamples = 5\nvalue = [4, 1]"] ;
142 -> 143 ;
144 [label="gini = 0.375\nsamples = 4\nvalue = [3, 1]"] ;
143 -> 144 ;
145 [label="gini = 0.0\nsamples = 1\nvalue = [1, 0]"] ;
143 -> 145 ;
146 [label="gini = 0.0\nsamples = 2\nvalue = [2, 0]"] ;
142 -> 146 ;
147 [label="x[6] <= 0.5\ngini = 0.32\nsamples = 25\nvalue = [20, 5]"] ;
75 -> 147 ;
148 [label="gini = 0.0\nsamples = 16\nvalue = [16, 0]"] ;
147 -> 148 ;
149 [label="x[0] <= 2.5\ngini = 0.494\nsamples = 9\nvalue = [4, 5]"] ;
147 -> 149 ;
150 [label="gini = 0.0\nsamples = 2\nvalue = [2, 0]"] ;
149 -> 150 ;
151 [label="x[2] <= 1.5\ngini = 0.408\nsamples = 7\nvalue = [2, 5]"] ;
149 -> 151 ;
152 [label="gini = 0.48\nsamples = 5\nvalue = [2, 3]"] ;
151 -> 152 ;
153 [label="gini = 0.0\nsamples = 2\nvalue = [0, 2]"] ;
151 -> 153 ;
154 [label="x[0] <= 2.5\ngini = 0.383\nsamples = 314\nvalue = [81, 233]"] ;
0 -> 154 [labeldistance=2.5, labelangle=-45, headlabel="False"] ;
155 [label="x[3] <= 2.5\ngini = 0.1\nsamples = 170\nvalue = [9, 161]"] ;
154 -> 155 ;
156 [label="x[2] <= 2.5\ngini = 0.169\nsamples = 75\nvalue = [7, 68]"] ;
155 -> 156 ;
157 [label="x[4] <= 0.5\ngini = 0.142\nsamples = 65\nvalue = [5, 60]"] ;
156 -> 157 ;
158 [label="x[2] <= 0.5\ngini = 0.163\nsamples = 56\nvalue = [5, 51]"] ;
157 -> 158 ;
159 [label="gini = 0.0\nsamples = 6\nvalue = [0, 6]"] ;
158 -> 159 ;
160 [label="x[0] <= 1.5\ngini = 0.18\nsamples = 50\nvalue = [5, 45]"] ;
158 -> 160 ;
161 [label="gini = 0.0\nsamples = 2\nvalue = [0, 2]"] ;
160 -> 161 ;
162 [label="x[6] <= 0.5\ngini = 0.187\nsamples = 48\nvalue = [5, 43]"] ;
160 -> 162 ;
163 [label="x[5] <= 2.0\ngini = 0.211\nsamples = 25\nvalue = [3, 22]"] ;
162 -> 163 ;
164 [label="gini = 0.0\nsamples = 3\nvalue = [0, 3]"] ;
163 -> 164 ;
165 [label="x[2] <= 1.5\ngini = 0.236\nsamples = 22\nvalue = [3, 19]"] ;
163 -> 165 ;
166 [label="gini = 0.26\nsamples = 13\nvalue = [2, 11]"] ;
165 -> 166 ;
167 [label="gini = 0.198\nsamples = 9\nvalue = [1, 8]"] ;
165 -> 167 ;
168 [label="x[5] <= 2.0\ngini = 0.159\nsamples = 23\nvalue = [2, 21]"] ;
162 -> 168 ;
169 [label="x[3] <= 1.5\ngini = 0.231\nsamples = 15\nvalue = [2, 13]"] ;
168 -> 169 ;
170 [label="x[2] <= 1.5\ngini = 0.26\nsamples = 13\nvalue = [2, 11]"] ;
169 -> 170 ;
171 [label="gini = 0.219\nsamples = 8\nvalue = [1, 7]"] ;
170 -> 171 ;
172 [label="gini = 0.32\nsamples = 5\nvalue = [1, 4]"] ;
170 -> 172 ;
173 [label="gini = 0.0\nsamples = 2\nvalue = [0, 2]"] ;
169 -> 173 ;
174 [label="gini = 0.0\nsamples = 8\nvalue = [0, 8]"] ;
168 -> 174 ;
175 [label="gini = 0.0\nsamples = 9\nvalue = [0, 9]"] ;
157 -> 175 ;
176 [label="x[4] <= 0.5\ngini = 0.32\nsamples = 10\nvalue = [2, 8]"] ;
156 -> 176 ;
177 [label="x[3] <= 1.5\ngini = 0.198\nsamples = 9\nvalue = [1, 8]"] ;
176 -> 177 ;
178 [label="x[5] <= 2.0\ngini = 0.444\nsamples = 3\nvalue = [1, 2]"] ;
177 -> 178 ;
179 [label="gini = 0.0\nsamples = 2\nvalue = [0, 2]"] ;
178 -> 179 ;
180 [label="gini = 0.0\nsamples = 1\nvalue = [1, 0]"] ;
178 -> 180 ;
181 [label="gini = 0.0\nsamples = 6\nvalue = [0, 6]"] ;
177 -> 181 ;
182 [label="gini = 0.0\nsamples = 1\nvalue = [1, 0]"] ;
176 -> 182 ;
183 [label="x[2] <= 0.5\ngini = 0.041\nsamples = 95\nvalue = [2, 93]"] ;
155 -> 183 ;
184 [label="x[0] <= 1.5\ngini = 0.278\nsamples = 6\nvalue = [1, 5]"] ;
183 -> 184 ;
185 [label="gini = 0.444\nsamples = 3\nvalue = [1, 2]"] ;
184 -> 185 ;
186 [label="gini = 0.0\nsamples = 3\nvalue = [0, 3]"] ;
184 -> 186 ;
187 [label="x[2] <= 1.5\ngini = 0.022\nsamples = 89\nvalue = [1, 88]"] ;
183 -> 187 ;
188 [label="x[5] <= 2.0\ngini = 0.061\nsamples = 32\nvalue = [1, 31]"] ;
187 -> 188 ;
189 [label="gini = 0.0\nsamples = 24\nvalue = [0, 24]"] ;
188 -> 189 ;
190 [label="x[4] <= 0.5\ngini = 0.219\nsamples = 8\nvalue = [1, 7]"] ;
188 -> 190 ;
191 [label="gini = 0.444\nsamples = 3\nvalue = [1, 2]"] ;
190 -> 191 ;
192 [label="gini = 0.0\nsamples = 5\nvalue = [0, 5]"] ;
190 -> 192 ;
193 [label="gini = 0.0\nsamples = 57\nvalue = [0, 57]"] ;
187 -> 193 ;
194 [label="x[4] <= 0.5\ngini = 0.5\nsamples = 144\nvalue = [72, 72]"] ;
154 -> 194 ;
195 [label="x[3] <= 2.5\ngini = 0.469\nsamples = 88\nvalue = [55, 33]"] ;
194 -> 195 ;
196 [label="x[2] <= 3.5\ngini = 0.49\nsamples = 72\nvalue = [41, 31]"] ;
195 -> 196 ;
197 [label="x[3] <= 0.5\ngini = 0.488\nsamples = 71\nvalue = [41, 30]"] ;
196 -> 197 ;
198 [label="x[2] <= 1.5\ngini = 0.498\nsamples = 15\nvalue = [7, 8]"] ;
197 -> 198 ;
199 [label="x[2] <= 0.5\ngini = 0.473\nsamples = 13\nvalue = [5, 8]"] ;
198 -> 199 ;
200 [label="gini = 0.0\nsamples = 1\nvalue = [1, 0]"] ;
199 -> 200 ;
201 [label="x[6] <= 0.5\ngini = 0.444\nsamples = 12\nvalue = [4, 8]"] ;
199 -> 201 ;
202 [label="gini = 0.0\nsamples = 1\nvalue = [0, 1]"] ;
201 -> 202 ;
203 [label="gini = 0.463\nsamples = 11\nvalue = [4, 7]"] ;
201 -> 203 ;
204 [label="gini = 0.0\nsamples = 2\nvalue = [2, 0]"] ;
198 -> 204 ;
205 [label="x[5] <= 2.0\ngini = 0.477\nsamples = 56\nvalue = [34, 22]"] ;
197 -> 205 ;
206 [label="x[3] <= 1.5\ngini = 0.43\nsamples = 32\nvalue = [22, 10]"] ;
205 -> 206 ;
207 [label="x[2] <= 0.5\ngini = 0.48\nsamples = 20\nvalue = [12, 8]"] ;
206 -> 207 ;
208 [label="x[6] <= 0.5\ngini = 0.375\nsamples = 4\nvalue = [1, 3]"] ;
207 -> 208 ;
209 [label="gini = 0.444\nsamples = 3\nvalue = [1, 2]"] ;
208 -> 209 ;
210 [label="gini = 0.0\nsamples = 1\nvalue = [0, 1]"] ;
208 -> 210 ;
211 [label="x[2] <= 1.5\ngini = 0.43\nsamples = 16\nvalue = [11, 5]"] ;
207 -> 211 ;
212 [label="x[6] <= 0.5\ngini = 0.444\nsamples = 15\nvalue = [10, 5]"] ;
211 -> 212 ;
213 [label="gini = 0.375\nsamples = 4\nvalue = [3, 1]"] ;
212 -> 213 ;
214 [label="gini = 0.463\nsamples = 11\nvalue = [7, 4]"] ;
212 -> 214 ;
215 [label="gini = 0.0\nsamples = 1\nvalue = [1, 0]"] ;
211 -> 215 ;
216 [label="x[2] <= 0.5\ngini = 0.278\nsamples = 12\nvalue = [10, 2]"] ;
206 -> 216 ;
217 [label="gini = 0.408\nsamples = 7\nvalue = [5, 2]"] ;
216 -> 217 ;
218 [label="gini = 0.0\nsamples = 5\nvalue = [5, 0]"] ;
216 -> 218 ;
219 [label="x[2] <= 2.5\ngini = 0.5\nsamples = 24\nvalue = [12, 12]"] ;
205 -> 219 ;
220 [label="x[2] <= 1.5\ngini = 0.499\nsamples = 23\nvalue = [11, 12]"] ;
219 -> 220 ;
221 [label="x[6] <= 0.5\ngini = 0.5\nsamples = 14\nvalue = [7, 7]"] ;
220 -> 221 ;
222 [label="x[3] <= 1.5\ngini = 0.497\nsamples = 13\nvalue = [6, 7]"] ;
221 -> 222 ;
223 [label="gini = 0.48\nsamples = 5\nvalue = [2, 3]"] ;
222 -> 223 ;
224 [label="gini = 0.5\nsamples = 8\nvalue = [4, 4]"] ;
222 -> 224 ;
225 [label="gini = 0.0\nsamples = 1\nvalue = [1, 0]"] ;
221 -> 225 ;
226 [label="x[6] <= 0.5\ngini = 0.494\nsamples = 9\nvalue = [4, 5]"] ;
220 -> 226 ;
227 [label="x[3] <= 1.5\ngini = 0.5\nsamples = 8\nvalue = [4, 4]"] ;
226 -> 227 ;
228 [label="gini = 0.0\nsamples = 1\nvalue = [1, 0]"] ;
227 -> 228 ;
229 [label="gini = 0.49\nsamples = 7\nvalue = [3, 4]"] ;
227 -> 229 ;
230 [label="gini = 0.0\nsamples = 1\nvalue = [0, 1]"] ;
226 -> 230 ;
231 [label="gini = 0.0\nsamples = 1\nvalue = [1, 0]"] ;
219 -> 231 ;
232 [label="gini = 0.0\nsamples = 1\nvalue = [0, 1]"] ;
196 -> 232 ;
233 [label="x[5] <= 2.0\ngini = 0.219\nsamples = 16\nvalue = [14, 2]"] ;
195 -> 233 ;
234 [label="x[2] <= 0.5\ngini = 0.165\nsamples = 11\nvalue = [10, 1]"] ;
233 -> 234 ;
235 [label="gini = 0.278\nsamples = 6\nvalue = [5, 1]"] ;
234 -> 235 ;
236 [label="gini = 0.0\nsamples = 5\nvalue = [5, 0]"] ;
234 -> 236 ;
237 [label="x[2] <= 2.5\ngini = 0.32\nsamples = 5\nvalue = [4, 1]"] ;
233 -> 237 ;
238 [label="gini = 0.375\nsamples = 4\nvalue = [3, 1]"] ;
237 -> 238 ;
239 [label="gini = 0.0\nsamples = 1\nvalue = [1, 0]"] ;
237 -> 239 ;
240 [label="x[2] <= 1.5\ngini = 0.423\nsamples = 56\nvalue = [17, 39]"] ;
194 -> 240 ;
241 [label="x[3] <= 1.5\ngini = 0.389\nsamples = 53\nvalue = [14, 39]"] ;
240 -> 241 ;
242 [label="x[4] <= 1.5\ngini = 0.342\nsamples = 32\nvalue = [7, 25]"] ;
241 -> 242 ;
243 [label="gini = 0.0\nsamples = 6\nvalue = [0, 6]"] ;
242 -> 243 ;
244 [label="x[6] <= 0.5\ngini = 0.393\nsamples = 26\nvalue = [7, 19]"] ;
242 -> 244 ;
245 [label="gini = 0.0\nsamples = 1\nvalue = [1, 0]"] ;
244 -> 245 ;
246 [label="x[3] <= 0.5\ngini = 0.365\nsamples = 25\nvalue = [6, 19]"] ;
244 -> 246 ;
247 [label="gini = 0.34\nsamples = 23\nvalue = [5, 18]"] ;
246 -> 247 ;
248 [label="x[2] <= 0.5\ngini = 0.5\nsamples = 2\nvalue = [1, 1]"] ;
246 -> 248 ;
249 [label="gini = 0.0\nsamples = 1\nvalue = [0, 1]"] ;
248 -> 249 ;
250 [label="gini = 0.0\nsamples = 1\nvalue = [1, 0]"] ;
248 -> 250 ;
251 [label="x[4] <= 1.5\ngini = 0.444\nsamples = 21\nvalue = [7, 14]"] ;
241 -> 251 ;
252 [label="x[6] <= 0.5\ngini = 0.492\nsamples = 16\nvalue = [7, 9]"] ;
251 -> 252 ;
253 [label="x[2] <= 0.5\ngini = 0.48\nsamples = 15\nvalue = [6, 9]"] ;
252 -> 253 ;
254 [label="x[5] <= 2.0\ngini = 0.408\nsamples = 7\nvalue = [2, 5]"] ;
253 -> 254 ;
255 [label="gini = 0.444\nsamples = 6\nvalue = [2, 4]"] ;
254 -> 255 ;
256 [label="gini = 0.0\nsamples = 1\nvalue = [0, 1]"] ;
254 -> 256 ;
257 [label="x[5] <= 2.0\ngini = 0.5\nsamples = 8\nvalue = [4, 4]"] ;
253 -> 257 ;
258 [label="gini = 0.444\nsamples = 3\nvalue = [2, 1]"] ;
257 -> 258 ;
259 [label="gini = 0.48\nsamples = 5\nvalue = [2, 3]"] ;
257 -> 259 ;
260 [label="gini = 0.0\nsamples = 1\nvalue = [1, 0]"] ;
252 -> 260 ;
261 [label="gini = 0.0\nsamples = 5\nvalue = [0, 5]"] ;
251 -> 261 ;
262 [label="gini = 0.0\nsamples = 3\nvalue = [3, 0]"] ;
240 -> 262 ;
}
